-0.20380669832229614,0.43284618854522705,0.416533499956131,-0.24800576269626617,0.4004647731781006,-0.36262238025665283,-0.08300004154443741,-0.19143830239772797,0.011552480980753899,-0.00045498996041715145,-0.015577666461467743,0.5546668171882629,-0.2537063658237457,-0.03118016943335533,-0.05091165378689766,0.22094523906707764,-0.1046157106757164,-0.26942509412765503,-0.011388033628463745,-0.46546533703804016,0.43349942564964294,0.12801378965377808,-0.1287083923816681,0.058602750301361084,0.1717013418674469,-0.09097401797771454,-0.10120685398578644,0.013145308010280132,0.11832777410745621,0.1459151804447174,-0.21709628403186798,-0.34384140372276306,0.41663050651550293,0.3708361089229584,-0.17121830582618713,-0.03091958537697792,0.06563728302717209,0.1532502919435501,-0.05643349885940552,0.7779026031494141,-0.27977702021598816,-0.5646061301231384,-0.14721132814884186,0.20660406351089478,-0.08670797944068909,-0.2574470639228821,-0.2770618796348572,0.017468536272644997,0.08229197561740875,0.3700944483280182
