0.018630148842930794,-0.042219825088977814,-0.11220258474349976,0.05165935307741165,0.09445375949144363,-0.07139245420694351,0.09919477999210358,-0.038557980209589005,0.1307377964258194,1.7311276678810827e-05,0.08597706258296967,-0.022466113790869713,0.048156268894672394,0.07483097910881042,-0.03935164958238602,-0.06778240203857422,-0.028714515268802643,0.12371254712343216,0.08354759216308594,0.11386644095182419,0.02510923147201538,-0.04842473939061165,0.021782569587230682,-0.1235855296254158,0.12720361351966858,-0.11696557700634003,-0.0866309255361557,-0.00034824051545001566,0.0912691131234169,0.07188728451728821,-0.07445886731147766,-0.017909690737724304,0.028608474880456924,-0.13409271836280823,-0.14004549384117126,-0.1353108435869217,-0.08388133347034454,-0.032262351363897324,-0.032545167952775955,0.03185676783323288,-0.08771679550409317,-0.04515715688467026,-0.11884291470050812,0.0240571741014719,-0.07025668770074844,-0.1256565898656845,-0.06298785656690598,-0.06688578426837921,0.08940137922763824,-0.06486871093511581
