-0.011615939438343048,0.009190822951495647,0.014002058655023575,0.03993873670697212,-0.040533293038606644,0.04579648748040199,-0.008267990313470364,0.027332725003361702,0.08740166574716568,0.11689458787441254,0.04927930235862732,-0.08943404257297516,0.22881850600242615,0.0333503894507885,0.20033404231071472,-0.03938843682408333,-0.20145802199840546,-0.1352992206811905,0.09098436683416367,0.0007754756370559335,0.1457739919424057,0.13506348431110382,0.08084633946418762,0.08000055700540543,0.022693445906043053,-0.11783424019813538,-0.0068913171999156475,-0.1308228224515915,-0.13780036568641663,-0.026362791657447815,0.023902548477053642,-0.017694327980279922,0.12525330483913422,-0.010146179236471653,0.17948919534683228,-0.15175999701023102,-0.10712866485118866,0.02346787415444851,-0.055477894842624664,0.12391562014818192,-0.10476485639810562,0.029667243361473083,0.1001591756939888,0.09404715895652771,0.03805045783519745,0.13040879368782043,-0.00436317129060626,-0.030749142169952393,-0.11882053315639496,-0.11414003372192383
