0.09541323035955429,-0.20790104568004608,0.081766277551651,-0.0975649282336235,-0.5979079604148865,0.3373793661594391,0.13957864046096802,0.20348520576953888,-0.07144948840141296,-0.2556878626346588,0.16006971895694733,-0.8443019390106201,0.08252589404582977,0.4300747513771057,0.4146256446838379,-0.6364839673042297,-0.04461353272199631,-0.031963448971509933,0.2963063716888428,0.24222508072853088,0.2691307067871094,0.3082822263240814,-0.14633384346961975,0.2619137763977051,-0.1016642227768898,-0.5419178009033203,-0.20289340615272522,0.013087834231555462,-0.013530830852687359,-0.2784380316734314,0.037193309515714645,-0.17774441838264465,0.19496318697929382,0.2605378329753876,0.3327699601650238,-0.44207337498664856,-0.540551483631134,0.03770804405212402,-0.2979047894477844,0.5958629250526428,-0.02638513594865799,0.31066739559173584,0.31108394265174866,0.037927303463220596,-0.27255088090896606,0.6498013138771057,-0.41917723417282104,-0.16129614412784576,0.25473594665527344,0.1794082373380661
