-0.7375617027282715,0.2946943938732147,1.6968239545822144,-0.8507656455039978,1.8535512685775757,-1.2064143419265747,0.9692102670669556,-1.0466358661651611,1.0480985641479492,-0.026661185547709465,0.6928392052650452,-2.363623857498169,0.5975449681282043,-0.2981550395488739,-1.14411461353302,0.7555382251739502,-1.3725495338439941,1.1190656423568726,-1.4611338376998901,0.5005982518196106,1.4224390983581543,-1.429819107055664,-0.4263211190700531,0.21455664932727814,0.8874143362045288,1.2641575336456299,1.1262319087982178,-0.8310713768005371,1.4979971647262573,0.726774275302887,-0.2910342216491699,-1.2740249633789062,0.06674216687679291,1.6914416551589966,1.4942653179168701,-0.8896850347518921,-1.556649923324585,0.9551898241043091,-1.4177290201187134,0.07831074297428131,0.5630908608436584,1.2640365362167358,-0.7185561656951904,0.0784899890422821,0.6826083064079285,-0.994062602519989,1.19488525390625,-0.8491297364234924,-1.2728971242904663,0.6842913031578064,0.8609943389892578,0.7119371294975281,-1.4500744342803955,1.1954460144042969,1.1688538789749146,-0.81610107421875,-0.5750296711921692,0.4260381758213043,1.1904206275939941,-1.5749112367630005,-0.924628496170044,-1.2364256381988525,-0.11651860922574997,0.1763884276151657,-1.882063627243042,1.060893177986145,0.9063727259635925,0.506251871585846,1.5850094556808472,1.029680609703064,2.028243064880371,-0.6831653118133545,-2.067685842514038,0.976140558719635,1.2100129127502441,-0.22186054289340973,-0.07448508590459824,-0.39635294675827026,1.1900616884231567,-1.0765016078948975,1.0516868829727173,-1.2804032564163208,-0.0013015421573072672,-0.3711778223514557,1.6449859142303467,0.4438781440258026,0.5499104261398315,-1.5228478908538818,-1.2541675567626953,1.5266823768615723,1.36126708984375,-2.1421847343444824,-0.733862578868866,0.8821048140525818,0.45321550965309143,0.7784976959228516,0.9963698387145996,1.8835458755493164,1.097304344177246,0.1364392787218094
