0.02693478763103485,0.20148415863513947,-0.03279948607087135,0.12042441964149475,-0.21185307204723358,0.0518944151699543,0.0896943137049675,-0.30155429244041443,-0.13041190803050995,0.02726663649082184,-0.055369388312101364,0.09044373780488968,-0.1920512467622757,-0.16907769441604614,-0.012736557982861996,0.08234379440546036,0.1657140552997589,0.03409208729863167,-0.581899881362915,0.2979479432106018,0.09270475804805756,-0.06678473204374313,-0.017289448529481888,-0.2812391519546509,0.284161239862442,-0.03590245172381401,0.06836666911840439,-0.11745034903287888,-0.029949625954031944,0.1028159111738205,-0.009522516280412674,0.0056203510612249374,-0.0648764818906784,-0.035776279866695404,-0.12545005977153778,0.057107869535684586,0.01406799629330635,0.15706388652324677,-0.04728010669350624,-0.13092796504497528,-0.26487064361572266,0.08498460799455643,0.18345186114311218,-0.07389815151691437,-0.004623077344149351,0.11256537586450577,-0.40071406960487366,0.27663469314575195,-0.018320923671126366,0.06658203899860382,-0.19702425599098206,0.1873517781496048,-0.7752640843391418,-0.11681056767702103,0.0638255625963211,-0.5672081708908081,-0.15619488060474396,-0.2061379849910736,-0.05457187443971634,-0.031027566641569138,-0.3703855872154236,0.6345669627189636,0.0670694038271904,0.337746262550354,0.5289627909660339,-0.27952098846435547,0.008477787487208843,0.030291900038719177,0.6870419979095459,0.15787480771541595,-0.03190240263938904,0.2711007595062256,0.04041869938373566,-0.10254497081041336,0.10167655348777771,0.008642422035336494,-0.07941260188817978,-0.09825422614812851,0.05598049238324165,-0.42491456866264343,-0.006746029946953058,-0.09156782925128937,0.13378171622753143,-0.04560377448797226,-0.3113914728164673,0.24507614970207214,-0.04251259192824364,0.0475444495677948,-0.03227778151631355,0.1230979934334755,0.10098464787006378,0.008977130986750126,-0.0777706727385521,-0.13386507332324982,0.014943652786314487,-0.10144057124853134,0.035733144730329514,0.3850632905960083,0.29388195276260376,0.015681153163313866
