0.0034367432817816734,-0.0064944797195494175,0.003490497125312686,-0.0014919247478246689,-0.004248047713190317,-0.0010976296616718173,0.0017531659686937928,-0.0011514362413436174,0.000947645865380764,-0.0012209605192765594,-0.0005070470506325364,-0.0006851467769593,-1.2093863915652037e-05,0.0018852581270039082,-0.0072861830703914165,0.00027281409711577,0.0001423767243977636,-0.0019217835506424308,-0.05721712484955788,-0.004512679297477007,0.003967358730733395,-0.00024376397777814418,-0.015007862821221352,0.3911927044391632,0.005280814133584499,-0.0019191165920346975,-0.00032229023054242134,0.001027008518576622,0.002365799155086279,0.03453592583537102,0.004299131687730551,0.31391429901123047,0.0018524019978940487,0.00045517960097640753,-0.0018760348903015256,0.00045120244612917304,-0.06286381930112839,-0.16346405446529388,-0.018822206184267998,0.0004781898751389235,-0.002127084182575345,0.14644719660282135,0.006753642112016678,0.05902090668678284,-0.0017700509633868933,-0.2651561498641968,0.0016577484784647822,-0.0028187762945890427,-0.0019439207389950752,0.0019321501022204757
