0.0515282079577446,0.031110621988773346,0.08158645778894424,0.0734211802482605,-0.020745569840073586,0.13907676935195923,0.07783489674329758,0.12511596083641052,-0.1264640986919403,0.09623873978853226,-0.10282298922538757,0.10649897158145905,0.1271180659532547,-0.08637852221727371,-0.061384182423353195,0.055612385272979736,-0.09756343066692352,-0.08279350399971008,-0.10927941650152206,-0.08992575854063034,-0.08766491711139679,0.0028604422695934772,0.002921526785939932,0.05219348520040512,0.019799519330263138,0.011505992151796818,-0.11033645272254944,-0.05691680312156677,-0.011138525791466236,-0.06296245008707047,-0.03668434917926788,-0.032684117555618286,0.12653867900371552,0.05287126451730728,-0.11487722396850586,-0.11605701595544815,0.11212847381830215,0.07393500208854675,-0.06734490394592285,-0.02181599661707878,-0.13064372539520264,0.09262173622846603,0.048021722584962845,-0.06170018017292023,0.037836626172065735,-0.10228042304515839,0.07043980807065964,-0.06725004315376282,-0.08512365072965622,-0.0987071618437767
