-0.1751948446035385,0.18238797783851624,0.03975755348801613,-0.011505085974931717,-0.00430696178227663,-0.11414510011672974,-0.0029996794182807207,0.27325549721717834,-0.00542032765224576,0.43563252687454224,0.00828971154987812,-1.8154087229049765e-05,-0.16215793788433075,0.3089649975299835,0.10597456246614456,-0.14274677634239197,-0.011470583267509937,-0.0001617373200133443,-0.2125737965106964,-0.008461943827569485,-0.2782433331012726,0.0664730966091156,-0.03270173817873001,0.14406976103782654,-0.02062806487083435,-0.0025339284911751747,0.0038372885901480913,-0.013173453509807587,-0.023972144350409508,-0.005188778508454561,0.1224825531244278,-0.007506310939788818,-0.015732133761048317,0.15837730467319489,0.0003083301999140531,-0.31698429584503174,0.006883856374770403,-0.011085554026067257,-0.014170374721288681,-0.013311032205820084,-0.007743021007627249,-0.0022533205337822437,-0.061269424855709076,-0.11691990494728088,-0.012803974561393261,0.0016294668894261122,-0.09044754505157471,-0.01595059223473072,0.007786355912685394,-0.017908085137605667
