0.0998072400689125,-0.7097470760345459,-0.29137924313545227,0.007905175909399986,-0.020431622862815857,0.056368373334407806,0.02361607365310192,-0.15839305520057678,0.014217249117791653,0.13073325157165527,0.10572807490825653,0.061136092990636826,-0.20501965284347534,0.17109641432762146,0.25717443227767944,-0.22558556497097015,0.08126625418663025,0.981153666973114,0.009264460764825344,0.029048584401607513,-0.011544769629836082,0.38104426860809326,-0.13052237033843994,0.559444785118103,0.06974522769451141,-0.0866905152797699,-0.005994950886815786,0.38900578022003174,-0.2178410440683365,-0.09504654258489609,0.1958935558795929,0.015101134777069092,0.05920879915356636,-0.33174142241477966,0.09840859472751617,0.6024962067604065,-0.04211592301726341,0.11003483086824417,0.04109255596995354,-0.018591759726405144,-0.012221548706293106,0.1426178514957428,0.6634061336517334,0.377704381942749,-0.2795453667640686,0.1273614764213562,-0.6140372157096863,-0.012584000825881958,-0.08292137831449509,-0.2887256443500519
