0.0996987447142601,-0.33552953600883484,0.3006349205970764,-0.01316704973578453,-0.2534434199333191,-0.7461032867431641,-0.11340276896953583,-0.26670315861701965,-0.21920615434646606,0.12097445130348206,0.15696175396442413,0.24745331704616547,-0.5420413017272949,0.2639578878879547,-0.07298939675092697,0.17837993800640106,-0.16151189804077148,-0.49560901522636414,-0.5272383689880371,-0.08809337019920349,0.2132902890443802,-0.4009406864643097,-0.11257012188434601,0.1384948045015335,-0.31158682703971863,-0.4912874400615692,0.001746714231558144,-0.02200525626540184,-0.10815984010696411,0.3435042202472687,-0.0002336728502996266,-0.006067344918847084,0.08636031299829483,-0.3619202673435211,0.1548350304365158,-0.18321114778518677,-0.00046572581049986184,-0.34697097539901733,-0.3058646321296692,0.15300416946411133,0.4139212369918823,0.6291617751121521,-0.25040704011917114,-0.07749605923891068,0.7099642157554626,0.2866640090942383,0.009623697958886623,0.00028994338936172426,0.36791709065437317,0.07574702799320221,0.19239668548107147,-0.08000719547271729,-0.9154505133628845,0.1592310667037964,-0.1251683235168457,0.38174307346343994,-0.04864363744854927,-0.5357245206832886,-0.5632664561271667,0.6197826266288757,-0.9726221561431885,-1.1308406591415405,0.028449630364775658,0.2797602415084839,-0.17973026633262634,-0.21311675012111664,0.5243209004402161,0.0756380632519722,-0.6853238940238953,-1.1758414506912231,-0.18745717406272888,-0.28050267696380615,0.009535145945847034,-8.482365956297144e-05,-0.26116806268692017,1.1593633890151978,-0.6677002906799316,0.23182176053524017,-0.05892584100365639,0.07694271206855774,0.8362252712249756,-0.04470397159457207,0.3586462140083313,-0.11316503584384918,0.8651238679885864,-0.15591485798358917,-0.3577885925769806,0.08203163743019104,0.4139123558998108,-0.18099741637706757,-0.08270149677991867,-0.12567003071308136,0.3795528709888458,-0.15514224767684937,4.331189484219067e-05,-1.0474127531051636,-0.08038315922021866,-0.26705610752105713,0.19815991818904877,-0.053100474178791046
