0.013854153454303741,0.9860862493515015,0.305995911359787,-0.008639168925583363,0.24751059710979462,0.6132635474205017,0.55448979139328,0.07068149000406265,-0.0680808275938034,-0.10324045270681381,0.5563123226165771,-0.09512607008218765,-0.4089425802230835,-0.1535026878118515,-0.06582602113485336,0.07945876568555832,-0.10985060036182404,0.4517080783843994,-0.7798606157302856,0.08958693593740463,-0.7384978532791138,-0.48334771394729614,0.18335720896720886,-0.5979325175285339,0.5394620895385742,0.5275179147720337,-0.0012448332272469997,-0.008891675621271133,-0.9741034507751465,-0.270052969455719,-0.0010312753729522228,-0.0015771471662446856,-0.044068098068237305,0.2798941731452942,0.268888384103775,-0.4002855718135834,0.0004941754159517586,-0.6342359185218811,0.09875383973121643,-0.19870509207248688,0.3133338391780853,0.7901884317398071,0.3307226598262787,-0.30307537317276,-1.0033400058746338,-0.19799573719501495,-0.007696767803281546,0.0007317104027606547,0.22074519097805023,0.06895902752876282,0.10967037826776505,-0.0578254833817482,1.3929076194763184,-0.06305239349603653,0.019095638766884804,0.5586307644844055,0.03394174948334694,-0.43382489681243896,0.44581884145736694,0.4742744565010071,0.549016535282135,0.4914689064025879,-0.025454144924879074,0.4266883432865143,-0.6028001308441162,0.3047281503677368,-0.022873541340231895,0.0560409352183342,0.8180736303329468,0.1417863517999649,0.11706850677728653,-0.43726375699043274,-0.017594274133443832,-0.003541193436831236,0.7232811450958252,0.624396800994873,0.6369044184684753,-0.17872901260852814,-0.6904965043067932,-0.32158657908439636,0.5899996161460876,-0.041603729128837585,0.22613565623760223,0.04517249017953873,0.3528999984264374,-0.1271740198135376,0.18694692850112915,1.0399540662765503,0.1978762149810791,-0.130839541554451,-0.2259146273136139,0.06819938868284225,1.3363959789276123,0.1956845223903656,0.00020926952129229903,0.011480707675218582,-0.049845632165670395,0.2164507657289505,-0.22362710535526276,-0.02622140385210514
