0.0006888821371831,0.05731518194079399,0.06170319765806198,-0.042722951620817184,0.012430407106876373,0.039562590420246124,-0.03749476745724678,0.01943664252758026,0.036550313234329224,0.0657808929681778,-0.03549075126647949,0.041796594858169556,0.06781750917434692,-0.09410277754068375,0.09219420701265335,-0.03468983992934227,-0.03447284176945686,0.01936688832938671,0.1299426406621933,0.02315741963684559,0.0042363801039755344,0.06919717788696289,0.04116173833608627,-0.08821415901184082,-0.0640331581234932,0.051267992705106735,-0.011305543594062328,0.042236607521772385,0.10949675738811493,0.023985065519809723,0.0428454726934433,-0.05429205670952797,-0.08567272871732712,0.08535812050104141,0.07326561957597733,0.07205002009868622,0.047436702996492386,0.050358954817056656,0.004250316880643368,-0.006142610218375921,-0.009351939894258976,-0.05207672342658043,-0.04274343326687813,0.06344401091337204,0.09736743569374084,-0.045934099704027176,0.07614073157310486,0.035094186663627625,0.0499173104763031,-0.05757248029112816,-0.03644619882106781,-0.07209780812263489,-0.0029341517947614193,-0.05197186768054962,0.06162801384925842,-0.04030901566147804,-0.06065201759338379,-0.039706189185380936,-0.0207536481320858,0.03922140598297119,0.029559452086687088,0.0013481328496709466,-0.08769238740205765,-0.049942731857299805,0.010460454039275646,-0.06146838888525963,-0.08268658071756363,-0.03570439666509628,-0.014118542894721031,0.0750705674290657,0.01610790565609932,0.0077767628245055676,0.0955171212553978,-0.08613180369138718,0.022020207718014717,0.05371693894267082,-0.1731271594762802,-0.09036198258399963,-0.04433863237500191,0.07115889340639114,0.0639764815568924,0.011943778954446316,-0.04371614754199982,0.10285180807113647,0.010756365954875946,-0.09707410633563995,-0.028646856546401978,-0.031915709376335144,0.04649583250284195,0.04736928269267082,0.009410377591848373,0.08399703353643417,-0.048630740493535995,-0.0013490954879671335,-0.03913882374763489,-0.007904068566858768,0.045380182564258575,0.08697096258401871,-0.05129029229283333,-0.005517193116247654
