0.016777442768216133,0.004502331838011742,0.054548975080251694,-0.20433904230594635,-0.003087341319769621,-0.6497762203216553,0.014075233601033688,0.02671482414007187,0.01116871740669012,-0.20741134881973267,0.5356389880180359,-0.026528039947152138,-0.017173174768686295,-0.016495173797011375,-0.13470779359340668,-0.014013591222465038,0.0235431045293808,0.003112170146778226,-0.19630786776542664,0.02639540657401085,0.44037577509880066,0.0030147265642881393,0.4122401177883148,0.007915700785815716,0.006712338887155056,-0.35997530817985535,0.03182275965809822,0.011159442365169525,-0.38280797004699707,0.03067542053759098,-0.010248285718262196,-0.00490413885563612,-0.023197192698717117,-0.007776252459734678,-0.13473665714263916,-0.21068789064884186,-0.003330139210447669,0.07094383984804153,1.2757984399795532,-0.1896239072084427,0.0008221144671551883,-0.003561306744813919,-0.3395859897136688,-0.005821609869599342,-0.016679638996720314,-0.09108395129442215,-0.011662593111395836,0.023339634761214256,0.00013698569091502577,0.004286948125809431,0.0376073382794857,0.000984681537374854,-0.003976817242801189,-0.017778558656573296,-0.0024866790045052767,0.7034422159194946,-0.661404550075531,0.004038575571030378,-0.0024931179359555244,-0.022546902298927307,-0.13293221592903137,0.01677505299448967,0.02794487774372101,-0.180086150765419,-0.06467168778181076,-0.003690297482535243,0.007969043217599392,-0.1468091905117035,0.2559411823749542,0.015034019015729427,0.01525203324854374,-0.5762140154838562,1.1957305669784546,-0.0015141225885599852,0.009703060612082481,0.007658606395125389,0.0012482247548177838,0.0530078187584877,0.004148674197494984,0.008583291433751583,-0.000912612653337419,0.09402076154947281,0.24327750504016876,-0.0015713025350123644,-0.15305885672569275,-0.003643530886620283,0.00465115113183856,-0.03090621717274189,-0.16698318719863892,0.299812912940979,-0.0012651412980630994,-0.011620570905506611,0.08091683685779572,0.01109462883323431,-0.0011310870759189129,0.016894442960619926,-0.8879973888397217,0.5373332500457764,-0.0007477818871848285,-0.0566415898501873
