0.016289880499243736,-0.014695560559630394,0.2954748272895813,2.244428873062134,0.028718072921037674,1.7136449813842773,-0.13168375194072723,-0.003383027855306864,0.0032874939497560263,0.8441363573074341,2.2290351390838623,-0.028495261445641518,0.007472450379282236,-0.009181380271911621,-0.9175470471382141,-0.032399438321590424,0.014358697459101677,-0.005051075480878353,1.1379822492599487,0.04451514407992363,1.5095571279525757,-0.0025884010829031467,1.2518503665924072,-0.003625050885602832,0.049690473824739456,1.6705409288406372,-0.009017490781843662,-0.012731881812214851,1.8647865056991577,0.009666726924479008,0.01516690757125616,0.0012160770129412413,-0.025319606065750122,-0.004745222628116608,1.8816990852355957,0.9243388175964355,-0.002094299765303731,-0.016604268923401833,1.9732911586761475,1.1888717412948608,0.7675161957740784,-0.020150331780314445,1.392174243927002,-0.03326248377561569,-0.020005619153380394,2.234158754348755,0.03239208832383156,0.9969894886016846,0.0008418880752287805,0.009815139696002007,0.02900203876197338,-0.009888098575174809,0.001719338004477322,-0.0019679113756865263,-0.028301890939474106,1.4323294162750244,2.164088487625122,-0.02701752819120884,-0.004767300095409155,-0.008761667646467686,0.7800579071044922,0.00015142200572881848,0.031109677627682686,1.2360225915908813,0.654491662979126,-0.020612683147192,0.12171021848917007,0.9705834984779358,-0.8428767919540405,2.346742630004883,-0.014728585258126259,1.5152510404586792,2.0916426181793213,-0.04128485918045044,-0.08731456845998764,-0.003911016508936882,0.02135159820318222,0.5466810464859009,-0.05376095697283745,-0.008417017757892609,0.00252564181573689,-0.4736829996109009,1.3941437005996704,-0.009803925640881062,1.6404072046279907,-0.004764363635331392,0.013364821672439575,0.09441085904836655,1.3171275854110718,1.2495753765106201,-0.003255984280258417,-0.010926831513643265,0.610406219959259,0.003647295292466879,-0.030017783865332603,0.05674707517027855,2.630795478820801,1.582977533340454,-0.0418584980070591,0.1722535640001297
