0.06696154177188873,0.0050166756846010685,-0.008362973108887672,-0.37010443210601807,0.0017501097172498703,0.41580823063850403,-0.02506575919687748,0.035647619515657425,-0.058820877224206924,-0.07969416677951813,0.029772432520985603,0.04089698940515518,-0.03933253139257431,0.450001984834671,0.5835814476013184,0.01775852032005787,-0.18501007556915283,-0.11613500118255615,0.34918707609176636,-0.07878824323415756,0.05022961273789406,-0.07313068956136703,-0.1329372376203537,0.0948980525135994,0.046578299254179,0.0331311859190464,-0.35524943470954895,-0.0869765654206276,0.4727604389190674,0.06737334281206131,0.05061210319399834,0.008550237864255905,-0.04089594632387161,-0.5453085899353027,-0.44656243920326233,-0.09146912395954132,0.48046234250068665,0.19474703073501587,-0.9528207182884216,0.020891254767775536,-0.3927944004535675,0.07656129449605942,-0.33382222056388855,-0.07805460691452026,-0.018085302785038948,-0.39553484320640564,0.009960639290511608,0.039841946214437485,-0.1281360238790512,0.04005284234881401,-0.09765850007534027,0.02686348743736744,0.045152053236961365,0.01995248533785343,-0.03149466961622238,0.10737977176904678,0.24849018454551697,0.04508643224835396,-0.06549440324306488,0.060362499207258224,-0.6630082726478577,7.190360338427126e-05,0.0303948987275362,0.6641300320625305,-0.76081782579422,-0.10526178777217865,0.048151109367609024,0.7936043739318848,-0.064273402094841,-0.04356630891561508,0.115377277135849,0.4735897183418274,-0.2652370035648346,0.11653824150562286,0.023185277357697487,0.04563364386558533,0.038073860108852386,0.025191331282258034,0.012987252324819565,0.0502430722117424,-0.010874379426240921,-0.013392124325037003,0.015117162838578224,-0.20135922729969025,-0.002268339041620493,-0.057467035949230194,0.021732768043875694,-0.11094558984041214,1.0,-0.2756081521511078,0.04389350116252899,-0.02889394573867321,0.3096850514411926,0.019108764827251434,-0.006241415161639452,-0.08252018690109253,-0.18735866248607635,0.07958124577999115,0.05619633197784424,-0.12759068608283997
