-0.10860355198383331,0.3755325973033905,-0.5149874091148376,0.9712448120117188,1.198622226715088,0.3841019868850708,-0.05807485058903694,1.6828819513320923,-0.1649373173713684,0.08264066278934479,0.043670713901519775,-1.2462807893753052,-0.18333061039447784,-0.48311847448349,-1.2675163745880127,-0.5805721282958984,-0.2480843961238861,0.9496123194694519,-1.2969461679458618,0.02661697193980217,0.17680546641349792,0.027561746537685394,-0.23313413560390472,1.2954258918762207,0.163808211684227,0.14923763275146484,1.4826886653900146,0.2953634560108185,-0.25284630060195923,1.6428989171981812,0.41061705350875854,1.5750623941421509,-0.1110854297876358,1.156027913093567,-1.134778618812561,-0.44343650341033936,-0.35715773701667786,-0.28905028104782104,-0.18037904798984528,-1.1706281900405884,1.260875940322876,0.19904831051826477,1.182167887687683,-0.5403172969818115,0.06358841806650162,-0.21350951492786407,-1.2679275274276733,0.815027117729187,-1.1411272287368774,1.8950324058532715,-0.6705172657966614,1.1510488986968994,-1.4421097040176392,0.30446869134902954,-0.9968252778053284,-0.19953018426895142,0.14989937841892242,-0.1507214605808258,0.7238156795501709,0.0693725198507309,-1.0537021160125732,1.1734471321105957,0.2848964333534241,-0.8658692836761475,-0.7929598093032837,-0.8296929597854614,1.3300490379333496,0.4577065706253052,-1.3507460355758667,-0.2499549388885498,0.411018431186676,-0.8464033603668213,-0.7274163365364075,-0.5192175507545471,-0.10187911987304688,0.9182703495025635,-1.2505571842193604,0.6140912771224976,-1.0429047346115112,-1.182754397392273,0.08190104365348816,0.09686341881752014,-1.071007490158081,-0.14787384867668152,-0.14331422746181488,-0.8836454153060913,1.3583927154541016,-0.15584765374660492,0.5518425703048706,-0.2385580837726593,-0.3742862045764923,-0.11545447260141373,-1.1485297679901123,-1.474471926689148,-1.4864981174468994,-0.2337714284658432,1.402329921722412,-0.024348486214876175,-1.0853360891342163,1.1736562252044678
