-0.09191631525754929,-0.03625412657856941,-0.0831686407327652,0.0870387926697731,-0.021428370848298073,-0.09960807859897614,0.002258113119751215,-0.09564198553562164,-0.045531708747148514,-0.006104093976318836,0.005537756253033876,-0.01182778924703598,0.07504228502511978,-0.10442899167537689,0.10278276354074478,0.012807349674403667,0.024723893031477928,0.025636043399572372,0.04256349429488182,0.08264222741127014,-0.06808256357908249,0.04210670292377472,0.039894938468933105,-0.06839019060134888,0.0050040497444570065,-0.054321225732564926,-0.03906264528632164,-0.017455602064728737,0.07239726185798645,0.017822621390223503,-0.03750026598572731,-0.01928750053048134,0.02144365943968296,0.0077808997593820095,-0.03935127705335617,0.03301345556974411,-0.013423683121800423,0.022975634783506393,-0.08117710053920746,0.05558013170957565,0.007934633642435074,0.06967759132385254,-0.027150828391313553,0.016226932406425476,-0.06610443443059921,0.07477502524852753,-0.07498987764120102,-0.08552086353302002,0.04692870005965233,-0.021391279995441437,0.05087760463356972,0.09698417782783508,-0.012918041087687016,0.03924473375082016,-0.040833793580532074,0.06420639157295227,-0.05029373615980148,0.09500212222337723,0.054931290447711945,0.06421005725860596,0.006771381013095379,0.11393318325281143,0.0943634882569313,-0.001464181230403483,0.06219806522130966,-0.030884068459272385,-0.061112429946660995,0.08196999132633209,0.002647064859047532,0.085171639919281,0.07332289963960648,-0.03770611062645912,0.004985809791833162,-0.08990032225847244,0.07286062091588974,-0.030108587816357613,0.04193306341767311,-0.011392245069146156,0.004028682131320238,0.08382093906402588,0.0915517508983612,-0.019586464390158653,0.08157338947057724,0.058530718088150024,-0.05472905933856964,-0.07656217366456985,-0.013127317652106285,0.0725531280040741,-0.09250561147928238,-0.049584124237298965,0.02075195126235485,0.07599744200706482,0.0965585708618164,0.012563095428049564,0.08618176728487015,0.04772787168622017,0.03178885579109192,-0.012376096099615097,0.022030487656593323,0.09985314309597015
