-0.07291582971811295,0.0003164612571708858,0.00014262099284678698,-0.12094852328300476,0.0011521802516654134,-0.0038464099634438753,-0.000884945155121386,0.15891647338867188,-0.14310547709465027,-0.10964033752679825,0.11890972405672073,-0.05821240693330765,0.020151261240243912,0.0017654927214607596,0.08942355215549469,0.0017394721508026123,0.001565631479024887,0.0012172916904091835,-0.00018933392129838467,-0.1382257640361786,0.0668768510222435,-0.0017046075081452727,0.0001974217884708196,0.0009676702902652323,0.004086449276655912,0.0012146409135311842,0.0020296170841902494,-0.00015453991363756359,-0.20377275347709656,0.12696102261543274,-0.17083866894245148,-0.028709908947348595,-0.022287962958216667,-0.0012814481742680073,0.0026108825113624334,0.04160315915942192,0.15838944911956787,0.012033335864543915,-0.060979604721069336,-0.02616642788052559,-0.07083313167095184,0.000458441732916981,-0.009302659891545773,-0.000367515254765749,-0.019262727349996567,-0.09099531173706055,-0.16694864630699158,0.11475681513547897,-0.11564468592405319,-0.18941955268383026,0.03535431623458862,-0.00047632146743126214,0.003380904207006097,-0.00335492636077106,0.0022784811444580555,-0.0917377918958664,0.0015332498587667942,-0.002096843672916293,-0.03315011411905289,-0.003378018271178007,-0.010176644660532475,-0.06130276247859001,0.005129314959049225,-0.0004292414814699441,0.0012652851874008775,0.04812067747116089,0.004052356351166964,0.29946932196617126,0.009654449298977852,-0.00032019391073845327,0.15067827701568604,0.05005991831421852,-0.0012669380521401763,0.0024638427421450615,0.05749767646193504,0.21404017508029938,0.0693119466304779,7.334008842008188e-05,-0.16569724678993225,-0.050495538860559464,0.30206888914108276,-0.00016649432654958218,0.12170951813459396,0.0025486850645393133,-0.041903845965862274,0.003646309021860361,0.0026774865109473467,0.2880725860595703,-0.0011098934337496758,-0.19768601655960083,0.00010573078179731965,0.01601346768438816,-0.0003466196940280497,-0.10962364822626114,0.001090550096705556,-0.1404346227645874,-0.0009591588168404996,-0.012963328510522842,0.1875515729188919,0.09619006514549255
