-0.02172573283314705,0.017726054415106773,0.014372864738106728,-0.02603735588490963,0.049539435654878616,-0.030390441417694092,0.006833454128354788,-0.013575984165072441,-0.030608177185058594,-0.02455022931098938,0.020641950890421867,0.020232150331139565,-0.03393173590302467,-0.042668070644140244,-0.009638795629143715,0.003355202730745077,0.0032583954744040966,-0.017278414219617844,-0.008862095884978771,-0.021211178973317146,0.004856076557189226,0.02708890475332737,-0.01273601409047842,0.006687965244054794,0.04967200383543968,-0.03445744141936302,-0.017767755314707756,0.014362041838467121,-0.03128281980752945,0.04119125008583069,-0.04618118703365326,0.04506441950798035,0.010718829929828644,0.03763507306575775,0.04609059542417526,-0.03863541781902313,0.04461703449487686,0.01753471978008747,0.04063931107521057,-0.04420040547847748,0.03613511845469475,-0.043195758014917374,0.023273354396224022,-0.04710046947002411,0.0028294173534959555,0.027101393789052963,0.035664208233356476,0.03777521476149559,-0.007246691733598709,0.018062371760606766,0.029669059440493584,-0.03517468646168709,0.03264451399445534,0.04484189674258232,0.0101670166477561,-0.0367836058139801,0.03495263680815697,-0.04906532168388367,0.008117998018860817,-0.020578572526574135,0.01635836996138096,0.009241513907909393,0.03164073824882507,-0.03198816254734993,-0.01940387673676014,0.01732509396970272,0.00899767130613327,-0.04574044048786163,-0.008735639974474907,-0.02427869476377964,0.008467838168144226,-0.032579079270362854,0.015337487682700157,0.002950091613456607,0.011653907597064972,-0.031460002064704895,-0.04940193146467209,-0.047488804906606674,0.04368291795253754,0.01258155982941389,-0.025836631655693054,-0.028657913208007812,0.03466348722577095,-0.010508074425160885,-0.032500896602869034,-0.007200214080512524,0.04256756976246834,-0.0007581448880955577,-0.049158863723278046,-0.018566714599728584,-0.010832077823579311,-0.0446130707859993,0.005280354525893927,-0.02092355489730835,0.046591777354478836,-0.014842430129647255,-0.044317200779914856,-0.025656240060925484,-0.04692179709672928,-0.0014411529991775751
