0.010582054033875465,-0.04602481797337532,-0.06153666600584984,0.8254785537719727,-0.32548946142196655,-1.505382776260376,-0.49073582887649536,-1.4370578527450562,0.5691425204277039,-0.7269272208213806,0.010228619910776615,5.751088494321266e-08,0.6941337585449219,-0.006901509128510952,-3.0379442250705324e-06,0.09899000823497772,1.5611066818237305,0.0878337100148201,-0.18839555978775024,-0.00972204003483057,0.27669626474380493,0.3467749059200287,0.1411733329296112,0.3644707202911377,-0.01260403636842966,0.05649210140109062,-0.3943251073360443,-0.0215366929769516,-0.04028043523430824,-0.2017272710800171,-0.022102948278188705,-0.19144213199615479,-0.49237924814224243,-0.31046658754348755,-0.010519600473344326,-0.09421815723180771,1.2057448625564575,-0.8756336569786072,1.5284693290595897e-05,-0.4348796606063843,0.019677383825182915,1.4900715541443788e-06,0.07916314899921417,-1.0875463485717773,-0.33458781242370605,0.3740672767162323,0.23237966001033783,-0.14446982741355896,0.22929655015468597,-3.0128717298794072e-06,-0.590451180934906,0.23470641672611237,-0.05906055495142937,0.214613139629364,0.2790161073207855,0.07107224315404892,-0.12580794095993042,-0.19376146793365479,0.1486116200685501,0.01419577095657587,0.34867584705352783,-0.3754647672176361,-0.7321616411209106,0.9268783330917358,0.1286603808403015,-0.383555144071579,0.014414682053029537,0.14332477748394012,0.39550232887268066,-4.5693305139593576e-08,-1.2825639247894287,0.32730385661125183,0.062586210668087,-0.5427016019821167,0.024405987933278084,0.22646136581897736,-0.04820031300187111,0.11635953933000565,-0.18550540506839752,0.052239447832107544,0.027560222893953323,-0.05620330944657326,-0.18793608248233795,1.4700568914413452,-2.4316375402122503e-06,-0.07037773728370667,-0.015596862882375717,0.0375761054456234,-0.10727564245462418,0.013980923220515251,-0.21240383386611938,-0.1862659901380539,-0.008975465781986713,0.021388830617070198,-0.2885725200176239,-0.42214909195899963,0.23407717049121857,0.01267903484404087,0.22984834015369415,-0.060462526977062225
