-0.010543810203671455,-0.9369420409202576,0.04437703639268875,0.9774940013885498,0.5349149703979492,1.0400807857513428,0.6163305640220642,1.4732298851013184,-0.35031968355178833,-0.6451382040977478,-0.00571615481749177,-5.217179477767786e-06,0.9278205633163452,0.5275791883468628,-3.7334748412831686e-06,-0.4948737323284149,0.734321653842926,0.0530257448554039,-0.6006514430046082,-0.00474766967818141,-0.4846203923225403,-0.15946714580059052,-0.3561607897281647,0.2437349110841751,0.00537826819345355,0.505699872970581,-0.2385278046131134,0.6099405884742737,-0.02052246406674385,0.17166288197040558,-0.7340986728668213,0.1037689745426178,0.6051007509231567,0.7159579992294312,-0.01144471950829029,0.06150323897600174,0.6924527883529663,0.5299519300460815,1.1449520570749883e-05,-0.30283263325691223,0.012737163342535496,-6.489028692158172e-07,-0.05129414424300194,1.009032130241394,1.2818049192428589,-0.2867535650730133,0.2509409189224243,-0.10781825333833694,0.15962493419647217,-3.6521098536468344e-06,1.006822943687439,0.11000476032495499,-0.033792611211538315,0.2002638876438141,0.27851244807243347,0.037214118987321854,-0.5825973749160767,-0.12015694379806519,-0.11119987815618515,-0.4277392327785492,-0.22110295295715332,-0.041863419115543365,0.5505005121231079,1.1332035064697266,-0.5479779839515686,-1.0150765180587769,0.008086764253675938,-0.3023431599140167,0.4864332377910614,-1.1403476491977926e-05,0.8274363875389099,-0.1210385262966156,0.04448120296001434,-0.6183617115020752,-0.016872406005859375,0.12403388321399689,-0.01981443352997303,0.08376995474100113,-0.16463744640350342,-1.2724885940551758,-0.014029700309038162,-0.04195094481110573,0.14892511069774628,0.48957064747810364,4.147711024415912e-06,-0.6312734484672546,0.008523196913301945,-0.05811567232012749,-0.4247274100780487,0.5681443810462952,0.14240409433841705,0.11546415835618973,0.006909243296831846,-0.018588731065392494,-0.2260529100894928,0.2732082009315491,0.5750834345817566,0.6387982964515686,1.3763554096221924,-0.03985019028186798
