-0.03040863387286663,-0.027341138571500778,0.0007345686317421496,0.0020727748051285744,-0.05224539712071419,-0.010742510668933392,-0.006380805280059576,0.013122586533427238,-0.03073885850608349,-0.022949503734707832,-0.007446828298270702,0.014831071719527245,-0.03452742472290993,-0.04653947800397873,-0.00036525464383885264,0.0012814191868528724,0.00805685855448246,-0.0278286375105381,0.018415754660964012,-0.0035933475010097027,0.00741747347638011,-0.0161297544836998,0.012329994700849056,0.005278468132019043,0.007557200733572245,-0.007075097877532244,-0.032719362527132034,0.0024418015964329243,0.0014624628238379955,0.0017060679383575916,0.02148544415831566,-0.01782394014298916,-0.0009658069466240704,0.04345201328396797,0.014251449145376682,0.00422985665500164,0.013426805846393108,0.004394087009131908,0.018750542774796486,0.029301170259714127,-0.011477730236947536,-0.028533658012747765,0.0047605037689208984,0.0075633167289197445,-0.016851192340254784,0.03905918076634407,0.011783670634031296,0.028082923963665962,-0.02990669570863247,-0.0391850508749485,0.010154349729418755,0.0029302702751010656,-0.013005457818508148,-0.031743939965963364,-0.01011632476001978,0.04149863123893738,0.011931705288589,0.026852795854210854,0.019044144079089165,0.010255313478410244,-0.005371079780161381,0.004150875378400087,0.008071169257164001,0.003664532443508506,-0.05690746381878853,-0.034907449036836624,-0.03099777363240719,0.0275874026119709,0.015615999698638916,-0.032564494758844376,-0.003421799512580037,0.0026851941365748644,-6.880274304421619e-05,0.0004746523918583989,-0.020242955535650253,-0.015010659582912922,-0.0283188633620739,-0.031240491196513176,-0.011481762863695621,0.031003335490822792,-0.045410580933094025,0.01610955037176609,-0.026579689234495163,-0.026367755606770515,0.016235830262303352,-0.0059737032279372215,0.03387359902262688,-0.01831069216132164,-0.0008733760332688689,0.01904369704425335,0.03174103423953056,0.022468991577625275,0.021057400852441788,-0.015720350667834282,-0.013546057976782322,-0.0316125825047493,-0.026422718539834023,0.011721599847078323,-0.015985073521733284,0.037595003843307495
