0.012292934581637383,0.0003319305251352489,-0.0094951456412673,0.001241145422682166,0.052538152784109116,-0.034405943006277084,6.014271093590651e-06,0.0028970439452677965,-0.00785107258707285,0.0005534985684789717,0.009259484708309174,0.016931436955928802,0.012858661822974682,-0.040878672152757645,0.026132449507713318,0.08228837698698044,0.04156413674354553,-0.019445285201072693,-0.04140433669090271,-0.05398004874587059,0.14777296781539917,0.2794994115829468,-0.08210994303226471,-0.01856287382543087,0.014104584231972694,0.0011558427941054106,0.018109124153852463,0.15918530523777008,-0.029046619310975075,0.07231593877077103,-0.004373887088149786,0.0016354486579075456,0.05852944403886795,0.10707221180200577,0.0010080646025016904,-0.0030499151907861233,-0.021335897967219353,-0.008799506351351738,0.0050008357502520084,-0.02068205364048481,0.07912162691354752,-0.03916751220822334,0.07635703682899475,-0.17072232067584991,-0.014283215627074242,0.09628662467002869,-0.010061888955533504,-0.009876958094537258,0.003147558541968465,-0.5412390232086182
