0.09099504351615906,0.017941338941454887,-0.02082625962793827,-0.01404926460236311,0.09087070822715759,-0.011816267855465412,-0.10274235904216766,-0.09663856029510498,-0.0228583924472332,0.03437377139925957,0.019002309069037437,0.05268377438187599,-0.06023892015218735,-0.21850332617759705,0.06260621547698975,0.14467336237430573,0.053365662693977356,-0.08625306934118271,-0.12903253734111786,-0.02345709130167961,-0.20715679228305817,0.176222562789917,0.06926742196083069,0.04128564894199371,0.13258373737335205,-0.04140979424118996,-0.06383287161588669,-0.01742451637983322,-0.08385249972343445,0.12847189605236053,-0.07413952797651291,0.09106756746768951,0.3134479820728302,-0.1837097406387329,0.0258143600076437,0.09962118417024612,0.07929787784814835,-0.030185770243406296,-0.06290465593338013,-0.0021556236315518618,-0.23907941579818726,0.18513529002666473,0.22710366547107697,0.12060911953449249,0.013702926225960255,0.008890275843441486,0.06140793859958649,-0.09753699600696564,-0.06851967424154282,-0.05586303398013115
