-0.011182546615600586,-0.010457205586135387,0.0326523557305336,0.03437039628624916,0.0016839009476825595,-0.03268645331263542,0.022393105551600456,0.015280831605196,0.033506520092487335,0.02758091129362583,-0.025902366265654564,0.016116024926304817,-0.012233818881213665,-0.02805352956056595,-0.03361169248819351,-0.03555039316415787,0.03484395146369934,-0.014113591983914375,0.0011674788547679782,0.028326187282800674,-0.02012687921524048,-0.022041285410523415,-0.015834461897611618,0.018674375489354134,-0.0327119342982769,-0.022748198360204697,-0.029519494622945786,-0.013642930425703526,-0.012472478672862053,-0.02160067670047283,-0.014969327487051487,-0.022252408787608147,0.028526464477181435,0.031361617147922516,0.013212508521974087,-0.025498203933238983,0.0013374551199376583,0.02595948614180088,0.0031579926144331694,-0.01621934212744236,-0.02943168580532074,-0.03090568631887436,0.011372040025889874,-0.018478767946362495,0.011107251048088074,-0.022790802642703056,0.028565539047122,-0.02955218218266964,0.03367304801940918,0.016093065962195396
