-0.06383147835731506,0.060005370527505875,-0.06523607671260834,0.08122958987951279,0.030423419550061226,-0.06744889914989471,-0.004081942141056061,-0.04195846617221832,-0.08340496569871902,-0.06277845799922943,0.05267186462879181,-0.07835916429758072,-0.10128792375326157,0.11769460886716843,0.007965621538460255,0.028996406123042107,0.07420653849840164,0.09598080813884735,0.03801208734512329,-0.0007039862684905529,-0.004659781698137522,-0.07124201953411102,0.041817255318164825,-0.09546007961034775,0.09765639901161194,-0.010536059737205505,-0.03277255967259407,-0.07357589900493622,-0.09020780026912689,-0.046011440455913544,-0.08378121256828308,-0.045969296246767044,-0.03715432435274124,0.018567275255918503,0.057752858847379684,-0.030354734510183334,0.03346649929881096,0.001874940120615065,0.05264027789235115,-0.029505407437682152,-0.0030848183669149876,-0.0853300541639328,0.0701541155576706,0.09652333706617355,0.008718468248844147,-0.008685520850121975,-0.02949359267950058,0.0009962230687960982,-0.045599572360515594,0.11182744801044464
