-0.14129720628261566,0.17761333286762238,-0.10135490447282791,0.9200573563575745,0.016692079603672028,0.20723170042037964,0.021723831072449684,-0.15621285140514374,-0.5719370245933533,1.439058451069286e-06,0.21452178061008453,0.16969238221645355,-1.2063415050506592,-2.179734110541176e-05,0.16743607819080353,-0.0006635237950831652,-0.21777518093585968,-0.516991913318634,0.18872970342636108,-0.23453675210475922,1.8932479406430502e-06,0.21436621248722076,-0.17087408900260925,-5.382747986004688e-06,0.1416449397802353,-0.22997474670410156,-0.11517975479364395,-0.11072888970375061,-0.1432928740978241,-0.4297506809234619,0.04136774316430092,-0.011530373245477676,0.227864071726799,0.13884754478931427,0.30720198154449463,-0.26100030541419983,0.17186754941940308,0.17381775379180908,0.07845316082239151,-0.07008931040763855,0.26668959856033325,-4.32355022894626e-07,-0.012730362825095654,3.7687700569222216e-06,-0.05076393485069275,0.08357477933168411,1.0914733366007567e-06,-5.398364422148916e-09,3.0367541512532625e-06,0.7491747140884399
