0.0632750615477562,0.8889240622520447,1.331913948059082,1.9450461864471436,-0.01052769273519516,-0.6777165532112122,0.010535866022109985,0.13445253670215607,-0.30894938111305237,-1.3128372167159341e-08,0.17139409482479095,-0.10982637852430344,1.1363767385482788,-7.507227110181702e-06,-0.07962219417095184,0.000323792191920802,0.6739662885665894,0.5397613644599915,-0.09659604728221893,-0.7814722061157227,-1.962257101695286e-06,0.8487237691879272,0.1248304694890976,6.42636587144807e-06,0.7050862908363342,0.26024797558784485,-0.0690503865480423,0.09968526661396027,-0.13950413465499878,0.8834879994392395,0.02183387242257595,0.005825146101415157,-0.17967858910560608,0.05635080114006996,-0.24748268723487854,-0.1254260390996933,-0.6762229204177856,0.6026433706283569,0.043064504861831665,0.398740291595459,0.1301359087228775,-7.354942113124707e-07,-0.014068104326725006,2.916250423368183e-06,0.05536334961652756,0.5518226027488708,-9.435514698452607e-07,7.079573833834729e-07,-9.905153319778037e-07,1.3645771741867065
