0.09112127125263214,-0.0862056240439415,-0.056028813123703,0.054444652050733566,-0.019285261631011963,-0.059662554413080215,0.023803016170859337,0.11059463769197464,-0.0503544881939888,0.0955202579498291,0.014778782613575459,0.02810867875814438,-0.061643898487091064,0.03555316478013992,0.02795277163386345,0.09500139206647873,0.050969209522008896,-0.02356513775885105,-0.026548270136117935,-0.04419101029634476,0.02212536893785,0.07610491663217545,0.023439720273017883,0.04023776948451996,0.02587788924574852,0.002929342444986105,0.057068079710006714,0.032347507774829865,0.0451691672205925,0.007920587435364723,0.06072445213794708,-0.09195812791585922,-0.04577871039509773,-0.088988296687603,-0.10269632190465927,-0.0510253943502903,-0.035011082887649536,0.02043372578918934,-0.09264951199293137,0.07185196131467819,0.01355182845145464,0.07580611854791641,0.0013456277083605528,0.026397893205285072,-0.037079181522130966,-0.05468772351741791,-0.0813601091504097,0.009826896712183952,0.0016175543423742056,-0.06994719803333282
