-0.0012106967624276876,-0.09110638499259949,0.08679516613483429,-0.005398517474532127,0.051698844879865646,-0.023317677900195122,-0.02995416894555092,-0.003247686196118593,-0.0731179416179657,0.060229066759347916,-0.07167334854602814,0.10213949531316757,0.020472850650548935,-0.005595973692834377,0.002940151607617736,0.018945075571537018,-0.09924853593111038,-0.0021090609952807426,0.0010221879929304123,-0.0010684615699574351,0.011486471630632877,-0.0008267082157544792,0.10551881790161133,0.0018922854214906693,0.06559614092111588,-0.08522257208824158,0.0881383866071701,0.0563768669962883,0.05970190092921257,-0.04632391780614853,-0.18157990276813507,0.025964008644223213,0.00028748298063874245,0.0025248487945646048,0.048732370138168335,0.12348446995019913,0.059791117906570435,0.17291249334812164,0.022727442905306816,0.0020640420261770487,0.010856816545128822,-1.4414399629458785e-05,0.03684985637664795,-0.02734587900340557,-0.10948323458433151,-0.20175623893737793,0.07093989104032516,-0.04281255230307579,0.01944056525826454,-0.020989568904042244,-0.07405751943588257,0.037507299333810806,0.022511882707476616,0.001631193677894771,0.004647484514862299,-0.03027205541729927,0.06487813591957092,-0.0018476988188922405,-0.03498036786913872,0.0007949519786052406,0.02281622402369976,-0.010055873543024063,0.09099913388490677,0.00022986042313277721,0.015353205613791943,-0.0004238781984895468,-0.01286264881491661,-0.054995033890008926,0.13092435896396637,0.0062008751556277275,-0.002440678421407938,-0.02566665969789028,0.034882161766290665,0.10191746801137924,-0.04630504921078682,-0.0007370651583187282,-0.0005792003939859569,-0.09863317012786865,-0.0001506537664681673,0.035667676478624344,0.01685573346912861,0.026631169021129608,0.13184814155101776,0.06829660385847092,-0.06635957211256027,0.05887322872877121,0.10686782747507095,0.04430278018116951,0.05556141957640648,-0.03791031241416931,-0.061535902321338654,-0.18518371880054474,0.06693258881568909,-0.10297810286283493,0.025260141119360924,0.09976257383823395,0.0013893278082832694,-0.0547001026570797,-0.13728517293930054,0.0011841581435874104
