-0.00563821429386735,0.003979882691055536,-0.030872968956828117,-0.03403802216053009,0.008492403663694859,-0.02592843770980835,0.029792433604598045,-0.02289855107665062,-0.02012954093515873,-0.018062880262732506,-0.03214456886053085,-0.02585165575146675,0.019218338653445244,0.0010070891585201025,0.014446266926825047,-0.010457850992679596,-0.0077151828445494175,-0.009527677670121193,0.013230915181338787,-0.008155807852745056,-0.013884511776268482,-0.016910085454583168,-0.013647053390741348,-0.008176634088158607,-0.032658278942108154,-0.00936796423047781,-0.008802557364106178,0.030613698065280914,-0.005464302841573954,-0.029555460438132286,0.020886648446321487,0.02960915118455887,0.01145064365118742,0.0037955837324261665,-0.01680695451796055,-0.02814069576561451,-0.03496081754565239,0.0002512130013201386,0.019990971311926842,0.027557900175452232,0.023860013112425804,0.032724615186452866,0.020475901663303375,0.015142647549510002,0.009130585938692093,-0.023461388424038887,0.019324325025081635,-0.022136937826871872,-0.009784884750843048,0.006016246508806944,-0.014135979115962982,0.0185075793415308,-0.012421499006450176,0.00691184913739562,-0.007876580581068993,0.020435038954019547,0.014953232370316982,-0.0322863943874836,-0.008080127649009228,0.016496939584612846,0.03483264148235321,-0.03289639204740524,-0.01089359913021326,-0.010535691864788532,0.030553366988897324,0.008075707592070103,-0.015272941440343857,0.03050156496465206,-0.011549213901162148,0.019952183589339256,0.030741816386580467,-0.013598338700830936,0.005333603359758854,0.03523928299546242,0.002466052770614624,0.003246790263801813,0.010654773563146591,0.004405168816447258,0.01348788756877184,-0.012127771973609924,-0.031215721741318703,-0.00343632441945374,0.010006333701312542,-0.02827601507306099,-0.032766733318567276,0.020351983606815338,0.020249422639608383,0.013255851343274117,0.0014808394480496645,0.008806790225207806,0.011566166765987873,0.02785669080913067,-0.0025999685749411583,0.008961453102529049,-0.007605902850627899,0.02838832326233387,0.006130618508905172,0.02351348288357258,0.008192921057343483,-0.02893845923244953
