-0.15512323379516602,1.1260664463043213,-0.156654492020607,1.0153104066848755,-0.6700021624565125,0.2175561487674713,0.04494133219122887,-0.016986574977636337,0.5672392249107361,1.0746517181396484,-0.32440656423568726,1.3484035730361938,0.24297279119491577,0.3360246419906616,0.9918692111968994,-0.16256225109100342,-0.8552705645561218,0.7337225079536438,-0.2559640407562256,-0.3859016001224518,-1.0678989887237549,-0.747700572013855,-0.3120291829109192,-0.1675250083208084,-1.0710177421569824,-0.14343589544296265,0.16942082345485687,0.5683920979499817,-0.9677177667617798,-0.6599860191345215,-0.3184841573238373,-0.6971036791801453,-0.44871410727500916,0.4659334421157837,0.09877518564462662,-0.4622940123081207,-0.5756054520606995,-1.171629786491394,0.4102277159690857,1.0042688846588135,-0.10942011326551437,1.0180070400238037,-0.16278062760829926,-0.033296141773462296,-0.3478766679763794,-0.6475788354873657,-0.4807306230068207,-0.0060457028448581696,0.15568333864212036,0.47576239705085754,0.2075309455394745,0.16789717972278595,-0.9163321852684021,-0.851787269115448,-0.4074801206588745,-0.43710020184516907,0.34754428267478943,0.3028104305267334,0.7396791577339172,1.1797364950180054,0.00233293860219419,-0.2119647115468979,0.7115119695663452,-0.325188547372818
