0.039630964398384094,0.015147417783737183,0.038383033126592636,-0.1376688927412033,-0.24353830516338348,0.005757731851190329,-0.09780652076005936,-0.07957661151885986,0.18135589361190796,0.052111681550741196,0.11127037554979324,-0.06361698359251022,-0.19071955978870392,0.04658928140997887,-0.16463950276374817,0.030259020626544952,-0.19455240666866302,0.1869768649339676,-0.1729622334241867,0.20904672145843506,0.19641953706741333,0.18501494824886322,0.1493758112192154,0.060162510722875595,-0.0121889878064394,-0.0058828420005738735,-0.10033009201288223,-0.2188492864370346,0.22327496111392975,0.030904632061719894,0.12210068106651306,0.012527929618954659,0.06894464790821075,-0.15240478515625,-0.19258515536785126,0.18285056948661804,0.07563358545303345,0.13625812530517578,-0.2470284104347229,0.01922723837196827,-0.23703975975513458,-0.016759973019361496,-0.023175233975052834,-0.17351149022579193,-0.2511975169181824,-0.007015850394964218,0.2252538949251175,0.22507204115390778,-0.1568170189857483,-0.04402075707912445,-0.2076718658208847,-0.18937121331691742,-0.07167583703994751,0.25139114260673523,-0.06416173279285431,0.0150564294308424,0.23483851552009583,0.04421510919928551,0.20112912356853485,0.16565169394016266,0.23521292209625244,0.04302589222788811,-0.20476126670837402,-0.216201514005661
