-0.41037359833717346,0.2766062319278717,-0.13731536269187927,-0.1400837004184723,0.34156128764152527,0.1467403918504715,0.12540534138679504,-0.009753604419529438,-0.0424976721405983,0.1436784565448761,0.12138122320175171,-0.19617071747779846,-0.07172423601150513,0.1508813053369522,0.8278518915176392,0.2396434098482132,0.23534169793128967,0.17718343436717987,0.3108455538749695,-0.17258316278457642,0.11856060475111008,-0.17947569489479065,-0.4745109975337982,-0.7075914740562439,0.1794489324092865,-0.19819042086601257,-0.06595625728368759,0.017272595316171646,0.12845681607723236,0.06184979900717735,-0.04443281888961792,0.1683371216058731,0.13406972587108612,0.5392236113548279,0.03556553274393082,-0.14293807744979858,-0.2445533573627472,0.08083520084619522,0.0019191803876310587,0.04633836820721626,-0.13927678763866425,-0.01961173117160797,0.03147640451788902,-0.1960069090127945,-0.08032878488302231,-0.032886162400245667,-0.2259032279253006,-0.6006721258163452,-0.13416296243667603,0.045141782611608505
